{
  "meta": {
    "version": "v4_yao_weights",
    "n_demos": 24,
    "n_eval": 200,
    "timestamp": "2026-05-31 20:33:53"
  },
  "baseline": {
    "total": 200,
    "reasonable_rate": 0.17,
    "exact_rate": 0.045,
    "by_type": {
      "cube": {
        "count": 37,
        "rate": 0.24324324324324326
      },
      "bottle": {
        "count": 19,
        "rate": 0.10526315789473684
      },
      "plate": {
        "count": 23,
        "rate": 0.0
      },
      "cylinder": {
        "count": 22,
        "rate": 0.45454545454545453
      },
      "vase": {
        "count": 24,
        "rate": 0.20833333333333334
      },
      "rock": {
        "count": 32,
        "rate": 0.0625
      },
      "sphere": {
        "count": 26,
        "rate": 0.11538461538461539
      },
      "bowl": {
        "count": 17,
        "rate": 0.17647058823529413
      }
    }
  },
  "after": {
    "total": 200,
    "reasonable_rate": 0.515,
    "exact_rate": 0.3,
    "by_type": {
      "cube": {
        "count": 37,
        "rate": 0.7837837837837838
      },
      "bottle": {
        "count": 19,
        "rate": 0.0
      },
      "plate": {
        "count": 23,
        "rate": 0.6956521739130435
      },
      "cylinder": {
        "count": 22,
        "rate": 0.9090909090909091
      },
      "vase": {
        "count": 24,
        "rate": 0.041666666666666664
      },
      "rock": {
        "count": 32,
        "rate": 0.1875
      },
      "sphere": {
        "count": 26,
        "rate": 0.9230769230769231
      },
      "bowl": {
        "count": 17,
        "rate": 0.4117647058823529
      }
    }
  },
  "cv": {
    "mean": 0.5566666666666668,
    "std": 0.004714045207910321
  },
  "improvement": {
    "reasonable_delta": 0.345,
    "exact_delta": 0.255,
    "avg_per_type_delta": 0.3233493462221252
  },
  "learned_weights": {
    "W": [
      [
        0.4605575067540972,
        -0.45448336995929417,
        -0.02454885578391664,
        0.021347303560292016,
        0.06824349468809149,
        -0.06618684563810692,
        0.34956332632773,
        -0.11573126864064184,
        -0.041558291557124816,
        -0.01564392754123313,
        0.13754794171134888,
        -0.0009027654428708609,
        0.1154509029116635
      ],
      [
        -0.1633543605593232,
        -0.06768308202625184,
        0.01593780891590904,
        -0.0721994481998276,
        0.5754588379794506,
        0.12434729554679258,
        0.06767757904187277,
        -0.3682511219772331,
        -0.033670226679825915,
        0.07781233724723598,
        -0.05648372025450911,
        0.03173913130830283,
        0.00496665314038509
      ],
      [
        -0.006568535377089409,
        0.14611010745508685,
        0.6424607847840544,
        -0.007597151129519383,
        0.0051790335980733265,
        -0.08685107697349492,
        0.02445316206978724,
        0.042417624484222455,
        0.06740334771538556,
        0.14033703382371737,
        0.4321935778033406,
        -0.08903749720622132,
        0.01692735181352004
      ],
      [
        -0.04256521088774217,
        -0.05474060072282604,
        -0.05320874296428201,
        -0.9957325033530654,
        -0.06154944608614476,
        0.022940157564542922,
        -0.13710324067271001,
        -0.21621735067507042,
        -0.011861854745465894,
        -0.11450157343994032,
        -0.04320370718618805,
        -0.14247854784500585,
        -0.15019753043486894
      ],
      [
        0.017867812179888296,
        -0.03799944822754488,
        -0.0036031441002007682,
        -0.0026198513086171634,
        -0.05436029786444445,
        0.11352888569737588,
        0.026995796563473257,
        0.19265256422060054,
        0.1186635881965903,
        1.051413579312975,
        -0.001352655409065209,
        -0.044080009304058344,
        -0.05457210730741846
      ],
      [
        0.01004032220801879,
        0.0726263566749897,
        -0.07910585503149277,
        -0.0021335646065176427,
        -0.09361515732090173,
        0.007969445465291115,
        0.04053249607581491,
        0.07411192619074161,
        -0.978519996383631,
        -0.04752564221123983,
        -0.028303783043547377,
        0.001223594698668181,
        -0.01566148128156193
      ]
    ],
    "b": [
      0.32404630547877233,
      0.017451191900754396,
      0.07587571217051695,
      0.8979396040415293,
      0.020683203266520536,
      0.9285986950488659
    ]
  }
}